Dimensions:
400 30 10
Weights Input To Hidden:
-0.042000000000000002609024107869117869995534420013428 0 0.023999999999999993560706457174092065542936325073242 0.0089999999999999941158179694866703357547521591186523 -0.019000000000000002997602166487922659143805503845215 0.022999999999999992672528037473966833204030990600586 -0.0049999999999999975019981945933977840468287467956543 0.029000000000000011879386363489174982532858848571777 -0.026000000000000002275957200481570907868444919586182 -0.040000000000000000832667268468867405317723751068115 -0.0090000000000000010547118733938987134024500846862793 0.016000000000000000333066907387546962127089500427246 0.043000000000000010436096431476471479982137680053711 -0.0069999999999999992783550339936482487246394157409668 0.03800000000000000599520433297584531828761100769043 -0.045999999999999999222843882762390421703457832336426 -0.021999999999999998723243521681069978512823581695557 -0.020000000000000003885780586188047891482710838317871 -0.0090000000000000010547118733938987134024500846862793 -0.037000000000000005107025913275720085948705673217773 -0.045999999999999999222843882762390421703457832336426 0.019999999999999990007992778373591136187314987182617 -0.040000000000000000832667268468867405317723751068115 0.0079999999999999932276395497865451034158468246459961 0.010999999999999995892174808886920800432562828063965 -0.016000000000000000333066907387546962127089500427246 0.050000000000000002775557561562891351059079170227051 0.029000000000000011879386363489174982532858848571777 -0.033000000000000001554312234475219156593084335327148 -0.014000000000000005495603971894524875096976757049561 
0.048000000000000000999200722162640886381268501281738 -0.022999999999999999611421941381195210851728916168213 -0.037000000000000005107025913275720085948705673217773 0.018000000000000002109423746787797426804900169372559 -0.038999999999999999944488848768742172978818416595459 -0.016000000000000000333066907387546962127089500427246 0.030000000000000012767564783189300214871764183044434 0 0.030000000000000012767564783189300214871764183044434 -0.028000000000000000582867087928207183722406625747681 0.018000000000000002109423746787797426804900169372559 0.022999999999999992672528037473966833204030990600586 0.043999999999999997446487043362139957025647163391113 -0.013000000000000004607425552194399642758071422576904 0.036000000000000004218847493575594853609800338745117 -0.003999999999999996613819774893272551707923412322998 -0.021000000000000004773959005888173123821616172790527 0.042000000000000009547918011776346247643232345581055 0.04499999999999999833466546306226518936455249786377 0.0079999999999999932276395497865451034158468246459961 -0.048000000000000000999200722162640886381268501281738 0.004000000000000003552713678800500929355621337890625 -0.041000000000000001720845688168992637656629085540771 -0.0049999999999999975019981945933977840468287467956543 0.018999999999999989119814358673465903848409652709961 0.041000000000000008659739592076221015304327011108398 -0.025000000000000001387778780781445675529539585113525 0.047000000000000000111022302462515654042363166809082 -0.019000000000000002997602166487922659143805503845215 -0.045999999999999999222843882762390421703457832336426 
-0.026999999999999999694688668228081951383501291275024 0.017000000000000001221245327087672194465994834899902 0 -0.025000000000000001387778780781445675529539585113525 -0.048000000000000000999200722162640886381268501281738 0.004000000000000003552713678800500929355621337890625 0.028000000000000010991207943789049750193953514099121 -0.041000000000000001720845688168992637656629085540771 -0.021000000000000004773959005888173123821616172790527 -0.016000000000000000333066907387546962127089500427246 0.049000000000000001887379141862766118720173835754395 0.032000000000000000666133814775093924254179000854492 -0.014000000000000005495603971894524875096976757049561 -0.036000000000000004218847493575594853609800338745117 0.016000000000000000333066907387546962127089500427246 -0.035000000000000003330669073875469621270895004272461 0.013999999999999998556710067987296497449278831481934 -0.013000000000000004607425552194399642758071422576904 -0.024000000000000000499600361081320443190634250640869 0.019999999999999990007992778373591136187314987182617 -0.034000000000000002442490654175344388931989669799805 0.04499999999999999833466546306226518936455249786377 -0.020000000000000003885780586188047891482710838317871 -0.048000000000000000999200722162640886381268501281738 -0.032000000000000000666133814775093924254179000854492 0.045999999999999999222843882762390421703457832336426 -0.04400000000000000438538094726936833467334508895874 -0.04499999999999999833466546306226518936455249786377 0.0020000000000000017763568394002504646778106689453125 0.049000000000000001887379141862766118720173835754395 
0.039113941465471396830011485690192785114049911499023 -0.02600007726876176622488046064063382800668478012085 -0.044007077166692172565110041659863782115280628204346 0.032999967716965977748699856419989373534917831420898 0.0030000241559264089440117739826519027701579034328461 0.01699466277724948071181643172167241573333740234375 -0.03300000234610008659208446601951436605304479598999 -0.012001740997041931979794071594369597733020782470703 -0.011005095054896982254000192824605619534850120544434 -0.0050032262644833748119199690052028017817065119743347 -0.048000100866919657993658887562560266815125942230225 0.047999519939866487627799784831950091756880283355713 0.021995344325696528781088900927898066584020853042603 -0.02100088239125862468736904986599256517365574836731 -0.012002141528142343251950308058439986780285835266113 0.0090000591376065766646696886255085701122879981994629 0.028025312041380347205521417208728962577879428863525 0.048002112594122507693850110399580444209277629852295 0.045000042449140055522693870670991600491106510162354 -0.045000008601224515680794269201214774511754512786865 -0.040019689714226099053195895294265937991440296173096 -0.017998295650611253332362693413415399845689535140991 -0.0039999448499790776420659277334834769135341048240662 0.026010346035117027502225894863840949255973100662231 -0.014008280419268463387605372361122135771438479423523 0.048995813193200815627292854514962527900934219360352 -0.0069358752999811234749016897183082619449123740196228 0.049999946815876737671313634336911491118371486663818 0.018999563189280786051904570399528893176466226577759 -0.037000036426289545365975186541618313640356063842773 
0.0089292425043006520141153359304553305264562368392944 0.0080116065039698303867909956466064613778144121170044 0.045126243590597588106749782355109346099197864532471 -0.041002600592128957135429345726151950657367706298828 0.046003623751077110659579716411826666444540023803711 0.019096714073134218175864518229900568258017301559448 -0.036000145282124293433234640815499005839228630065918 -0.018979117772077492426463507513290096540004014968872 -0.042907674353659344679279286083328770473599433898926 0.012996481682211421734840506303498841589316725730896 -0.0069983772182399747729952821373444749042391777038574 0.016002099386515655082829923117060388904064893722534 0.032999203617708201818903290813977946527302265167236 0.0030019670336908451692414789846452549681998789310455 0.018001560106906452224384551641378493513911962509155 -0.028000936835642940836432757123475312255322933197021 0.045538150331012119953477679246134357526898384094238 -0.037041953116372226817443191748679964803159236907959 0.021999080651504281797015138977258175145834684371948 -0.048000678040086230957683710585115477442741394042969 0.04139775712863581758060860238401801325380802154541 -0.017998114458991958108935449445198173634707927703857 -0.011006349585746730973534468489560822490602731704712 0.0078483913850012354540552905746153555810451507568359 -0.032871836003086164768038912598058232106268405914307 0.04099944781889233030858221695780230220407247543335 -0.010165191514967274188929735601050197146832942962646 0.030000467655626843893612587521602108608931303024292 -0.014014208656523398366378074797466979362070560455322 -0.042996429654518872331969703282084083184599876403809 
0.02506405720247106491682664852760353824123740196228 0.04792524963643675361968377046650857664644718170166 0.046015859660828939414756177939125336706638336181641 -0.029818242907096816074474787683357135392725467681885 0.0053109679721891995748950243694253003923222422599792 -0.026224828649952843656611989331395307090133428573608 0.043797363290612886799202385645912727341055870056152 0.010794567229944911773698024148870899807661771774292 -0.044001017358268453005809561773276072926819324493408 -0.022141453253478864809933313040346547495573759078979 -0.025644806794912381603390727491387224290519952774048 -0.042897194386980447289303697289142291992902755737305 -0.037747163096223126932393654442421393468976020812988 0.020599702538394448064762443095787602942436933517456 -0.010890538462980730097240389397938997717574238777161 0.045258692692742068242051090010136249475181102752686 -0.029670578116539988999811328085343120619654655456543 -0.0044366490086776688012148994744165975134819746017456 0.017141226066352540507997659346983709838241338729858 -0.014349992340908723775783073506318032741546630859375 -0.022820826358250893145518389815151749644428491592407 0.04460657066897148748108037352722021751105785369873 0.013708106824195116085762791158231266308575868606567 -0.011502947668903161504427856698384857736527919769287 -0.0047834654658681580521872866995636286446824669837952 0.038398558810197040702671955614277976565062999725342 0.00088324276222079419699367841545267765468452125787735 0.0098493115786850472803681810773923643864691257476807 -0.027775621129844479256787437293496623169630765914917 -0.0018215174525267276064294241777474780974444001913071 
0.0099038931826502963479130769997027528006583452224731 -0.020323057492488812159070477036948432214558124542236 0.023308202364352239438494152068415132816880941390991 -0.011606132097468252126204468765990895917639136314392 -0.005818722219389759961472030624918261310085654258728 0.037809492051704550463764320511472760699689388275146 0.0037151356452317049229583378888719380483962595462799 0.039936415450410316096974128186047892086207866668701 -0.025846044599651667172945934680683421902358531951904 -0.029674730960666563517325045040706754662096500396729 -0.0090132318121346668288174086569597420748323202133179 0.018744540757584898099663561765737540554255247116089 0.018254992364658308157121524573085480369627475738525 -0.027782680772814129233072577562779770232737064361572 -0.019458776961499793523024948171951109543442726135254 -0.018015175675201239996470192750166461337357759475708 0.00029814856134217167151628791188500144926365464925766 -0.043975663735781461705087735936103854328393936157227 0.028507966958399751089547891069742036052048206329346 -0.0043218280351441920247856920411777537083253264427185 -0.012219332660499911125118188692795229144394397735596 0.045688689562112166919760625205526594072580337524414 -0.026981727988050444033696351198159391060471534729004 0.047055203828190318715574136376744718290865421295166 0.043933417790704483441022176748447236604988574981689 0.0066777309358440782235954991108428657753393054008484 0.041859276047747966120748941420970368199050426483154 -0.014443654443376590865155684184628626098856329917908 0.043926617531325026777544451306312112137675285339355 0.045884732887521512134654244619014207273721694946289 
-0.0091524080049207971743197020941806840710341930389404 -0.036629708158938387163594541107158875092864036560059 -0.02257663865380452744568984257966803852468729019165 -0.046045470954447949296639563954158802516758441925049 -0.00020107528295067305930225731724902971109258942306042 0.015608223904153863820232217562988807912915945053101 -0.060645373458603553384893558586554718203842639923096 0.032462170803873466318201224112272029742598533630371 0.012692851323498165541647786369594541611149907112122 -0.038672380188642059561932029509989661164581775665283 -0.016252309191964131596108700250624679028987884521484 0.020465486636402619585739515173372637946158647537231 0.082532009007558373991919609125034185126423835754395 0.061615388434702177133939215991631499491631984710693 0.01300512399757336283456776726552561740390956401825 -0.013419181404704300097918689971265848726034164428711 0.033544348301816691304555462238567997701466083526611 -0.020336482952550839764516155128148966468870639801025 -0.0051103479847740352140506026046296028653159737586975 -0.051297155723370277402572980918193934485316276550293 0.010633073018425028694045053612171614076942205429077 0.013993817190260314856087298096554150106385350227356 0.043242111437811890650717572270878008566796779632568 0.049094596804808134093978111422984511591494083404541 0.0099582275369258232977642819605534896254539489746094 0.072623579264480486727961761062033474445343017578125 -0.043029747076443664033362779264280106872320175170898 -0.018577379752930674172706204672067542560398578643799 0.034527422526367562705118530175241176038980484008789 0.0058714891411378094740469713030961429467424750328064 
0.032634791907660283538650247692203265614807605743408 -0.018509007758723827752334045726456679403781890869141 0.006581223715224615404550956299090103129856288433075 -0.043828047877115916541868045896990224719047546386719 0.007335327550370487025011012605091309524141252040863 -0.019183134478032163455774039562129473779350519180298 0.029239400455772914660945716036621888633817434310913 -0.041039943411103806114592629228354780934751033782959 -0.00050643192162995356430527094104832031007390469312668 -0.025036393787657689607994981884075968991965055465698 -0.0047097217150858334752672185175015329150483012199402 -0.0099839797311414568703469285537721589207649230957031 -0.041720524774089572106472445511826663278043270111084 0.060082317205460353259915962098602904006838798522949 -0.0075358838275680906093612065888009965419769287109375 0.00060506891608372694382755874187296285526826977729797 -0.046082331983175517375883600834640674293041229248047 -0.017103135488603787850436788176011759787797927856445 -0.021788719171785042583167069096816703677177429199219 -0.034181953350777831424078812005973304621875286102295 -0.027453849947619853033575765266505186446011066436768 0.029134105183375495762287954448765958659350872039795 -0.039503997759903188013996810923345037735998630523682 0.043124084159303868735158005165430950000882148742676 -0.019141524481894853920715959816334361676126718521118 -0.026829003951706519720543653306776832323521375656128 0.0056269937812926029349624990061329299351200461387634 0.018042795039030966319781867923666140995919704437256 -0.025565993546750997306160613220527011435478925704956 -0.010577243664935146935657250821805064333602786064148 
-0.031748092041802129792404940644701127894222736358643 -0.023802832796592409553282365664017561357468366622925 -0.048644954411751255285434325514870579354465007781982 -0.00075107335237775620269407017559615269419737160205841 0.014468349177548488204703147630425519309937953948975 0.056112132165298152230992201339176972396671772003174 -0.00076859737067021098328584161052390300028491765260696 -0.04578608710480747134852208546362817287445068359375 -0.0044221856087806521093397371657829353353008627891541 -0.0033847134190212544574416497766833344940096139907837 0.027540847159437144286986409724704571999609470367432 -0.036443161084807787486461450043861987069249153137207 0.0048356130553371375405125043300813558744266629219055 0.052633874242056351289154036976469797082245349884033 -0.044713306028973096029055511735350592061877250671387 0.031045773180299215260324885434783936943858861923218 -0.0024480999501678233493118241881347785238176584243774 0.016132350706879228924295333058580581564456224441528 0.025312314520894569486175740280486934352666139602661 0.050028997900618495109359429307005484588444232940674 -0.020304203981137039503046537447517039254307746887207 -0.018602400494633315047865451674624637234956026077271 0.0047483427244105957595876610355389857431873679161072 0.057337747479714616660739778808419941924512386322021 0.0019666338600147306205079278385028374032117426395416 -0.042346551216884402435436385303546558134257793426514 0.024045269618062019290061215315290610305964946746826 -0.027289577666150321294535885385812434833496809005737 -0.042886722059863623124353892990257008932530879974365 0.026773401750038477997506447536579798907041549682617 
0.0039888670586250875305101004641983308829367160797119 -0.025425547954837965369812025073770200833678245544434 -0.018993056541927760827448423697205726057291030883789 0.014526210865250814910365484422527515562251210212708 -0.049460903960595867245864099004393210634589195251465 -0.0018545498448553072827482690598799308645538985729218 0.020992543148689372239923400798033981118351221084595 0.035884244262772618805357183191517833620309829711914 -0.034829488040110219426725990388149512000381946563721 0.047592656546549289009462313515541609376668930053711 0.0060373282199476397541504368859932583291083574295044 -0.01582539233068132322745924511764314956963062286377 0.0080126829279099399949704007894979440607130527496338 0.02880448533736777033675835468784498516470193862915 0.028944865346245938347857773464966157916933298110962 0.016605602069687593058677776980402995832264423370361 0.0074245483566931754285111999536184157477691769599915 -0.03802774006883707230697311274525418411940336227417 0.027708888353540617882631025281625625211745500564575 -0.03501056493560964627542730909226520452648401260376 -0.023442864935372089568721420960173418279737234115601 -0.011543590777809243502760594424216833431273698806763 -0.015964171187321924555435614934140176046639680862427 0.049914578408249206387115037841795128770172595977783 -0.027650487810142031219751146409180364571511745452881 0.012955016698303978631146016198272263864055275917053 -0.016005411976499999554546249669328972231596708297729 0.048006242978032166723867391056046471931040287017822 -0.01789876737352171648387511027067375835031270980835 0.038788063018061869069441627289052121341228485107422 
0.040005520128966812198889613227947847917675971984863 0.022722831757409335529107607953847036696970462799072 0.02800188501474049421191558906230056891217827796936 -0.044346714304035715625840197162688127718865871429443 0.0087402477914407788323059023127825639676302671432495 -0.048287549698614241899807808522382401861250400543213 0.0050154275117859350649474059480326104676350951194763 0.011013235408448559388139287307240010704845190048218 -0.033497072427790118565038568476666114293038845062256 -0.0020666675168558544528618625690796761773526668548584 0.031016580425734630033218763855984434485435485839844 -0.019039452434526878132903249252194655127823352813721 0.0059690334531320287519973177836618560831993818283081 -0.0029216611443896550563692482427313734660856425762177 -0.04257196378129687874825037852133391425013542175293 -0.010952823131547535437380069822665973333641886711121 -0.048878745779342043509263504574846592731773853302002 -0.02288722105084708968725237809849204495549201965332 -0.013667718538800333050176050164736807346343994140625 0.0080327300292650401225547085459766094572842121124268 -0.037743307078219219541370677006852929480373859405518 -0.034980313332288529015734468430309789255261421203613 0.043992504662703615925245514972630189731717109680176 0.0094383478888179963423032958758085442241281270980835 0.0045939491905238301686087432074145908700302243232727 -0.031026980822692160066900157744385069236159324645996 0.0080099074609237697758290508431855414528399705886841 0.036343167218503696913600720108661334961652755737305 -0.020787705197487599262373691999528091400861740112305 -0.034319878886165069986624587272672215476632118225098 
0.014682794654866345926413906397556274896487593650818 -0.051789252375798851268928757463072543032467365264893 -0.031778009503975197802549956804796238429844379425049 -0.0058683399293151770892418284120140015147626399993896 -0.03208513820402579541646304051027982495725154876709 0.021765458725894613195572802055721695069223642349243 -0.001973702362149114871575639185152795107569545507431 0.019987836772164320475742016469666850753128528594971 0.045035631649216492644605125406087609007954597473145 -0.048292806262619669688263002171879634261131286621094 0.024106267514090125303471978668312658555805683135986 -0.047992454497268854929359349625883623957633972167969 -0.00036054684026265594988872043025196489907102659344673 0.039567421389794500685699318864863016642630100250244 0.0079727885026528722001160076615633442997932434082031 0.0074165090416450909702184013383430283283814787864685 -0.042681407946769472916415111285459715873003005981445 -0.018687837279748379520905032791233679745346307754517 -0.029185241541198905790288620210048975422978401184082 -0.016927933211858137846350658151095558423548936843872 0.024220572465833551528691103271739848423749208450317 -0.046036266323888526408314447735392604954540729522705 0.047467713485919035831805956604512175545096397399902 -0.02807008535031936535819596656438079662621021270752 0.0020002077055081353591792225898871038225479423999786 -0.0177095149672843003851863130648780497722327709198 0.03152217933937258298460193373102811165153980255127 -0.043752214434502667561588395983562804758548736572266 -0.050092292574852488595826827122436952777206897735596 -0.031084528937998810727005860599092557094991207122803 
-0.021885907756322403594495540346542838960886001586914 -0.016350688043372262753250012679018254857510328292847 -0.04580522871024797493255675817636074498295783996582 0.024765955253460765483897176864047651179134845733643 -0.0057730726737110571802902292404269246617332100868225 0.01124005669878747927514783810920562245883047580719 0.031164083927820315778056681210728129372000694274902 0.029145799435164012475274475377773342188447713851929 -0.0099369429119141126222070070639347250107675790786743 0.020099611955673248736564673322391172405332326889038 3.206213386219570045344504083395520410704193636775e-05 0.0066630000462687194104360877133785834303125739097595 -0.0065136609324405571677663040475181333022192120552063 0.035596339269055130016816690385894617065787315368652 -0.049007838991406080242363429988472489640116691589355 0.037476532161654238506365288685628911480307579040527 0.031603674481135740625958874261414166539907455444336 0.019482158567955841499408364825285389088094234466553 -0.016847926195306252988848072504879382904618978500366 -0.025628249464088013326312776030135864857584238052368 0.0029437301579438896088902755110439102281816303730011 0.025969267933234167766709532543245586566627025604248 -0.015472312045229585919514647684991359710693359375 -0.020863130783438106619076535253043402917683124542236 -0.0018525408854450889535592228440918916021473705768585 0.045487500247728046565143245061335619539022445678711 -0.025065286736004825651757954574350151233375072479248 -0.01966962911124969792808769852854311466217041015625 0.012844461793008474584376621407955099130049347877502 -0.033154953467479320039501544670201838016510009765625 
-0.017685585237765494986961201107078522909432649612427 0.00062003715352958426853396955991115646611433476209641 0.048118505953290743870631729350861860439181327819824 0.02093566976388253064733646624517859891057014465332 0.015212693701889202363419784092002373654395341873169 0.021411299604596444046133996153002954088151454925537 0.049016829047288816567640168386787991039454936981201 0.00030752584956279663871286933485293957346584647893906 0.0093634612183408766350467544725688640028238296508789 -0.042245880074193893627398921353233163245022296905518 0.0023434732148723855064964549654860093141905963420868 -0.021055989757470774254022316540613246615976095199585 -0.056767053734596381597832248644408537074923515319824 0.034743560900891444498395088658071472309529781341553 -0.035241076743369251222937066359008895233273506164551 0.04248948260484894379196418867650208994746208190918 -0.0019971371896847804269792270304151315940544009208679 -0.037787074998068506670456656593160005286335945129395 -0.030717625691654863728796698296719114296138286590576 -0.023909829898282077692561742310317640658468008041382 -0.033646443397906532213337271741693257354199886322021 0.037215132403727889387479166316552436910569667816162 0.048599721923001062973135333322716178372502326965332 -0.024948434596737168594815514666152012068778276443481 -0.041053319632742481248843802177361794747412204742432 -0.0055131692166966537321792785064644704107195138931274 -0.036603308098931787439855867205551476217806339263916 0.048189530149689303872850842935804394073784351348877 0.00022387723368780793986414223706304937877575866878033 -0.043980701923683036824730407943206955678761005401611 
0.040364787975101533434862943749976693652570247650146 0.017774986180275859776189761873865791130810976028442 -0.037573387306390162998503967628494137898087501525879 0.052578937844313257399253558332929969765245914459229 0.0032258089246330430219233953437196760205551981925964 0.016926178008778214323371003047213889658451080322266 0.010989869446941177844045967049169121310114860534668 -0.0064007765496211684042027201257951674051582813262939 -0.037433725194633227228990790536045096814632415771484 0.00091322221518800347599131850273579402710311114788055 -0.041635158432050782539857181063780444674193859100342 -0.011033708622907114488276292263435607310384511947632 -0.039567223578937896211193958606600062921643257141113 -0.049485892101102241236176837446691934019327163696289 0.050589992463869686012412074660460348241031169891357 -0.026977686553416941467320455672052048612385988235474 0.030776074212283004161161414913294720463454723358154 0.039563429178844755629285145914764143526554107666016 -0.035555790331331070530662685769129893742501735687256 -0.023999491465302717763119488836309756152331829071045 -0.0056960627124855367151012863757841842016205191612244 -0.032119803771321384089354467050725361332297325134277 -0.0012252720273405841300284890849070507101714611053467 -0.0053558795629870216067902610745932179270312190055847 -0.033923321763341847401296291764083434827625751495361 0.027882216365002369939940507492792676202952861785889 -0.0035476266840915155441338324493472100584767758846283 0.02374636034127412809180412978093954734504222869873 -0.028551904335357213698953771086053166072815656661987 -0.047500762814059710459346774769073817878961563110352 
-0.0099065410340600460609161714842230139765888452529907 0.0053842832514253658945935221424861083505675196647644 -0.04379472452761319634095826813791063614189624786377 -0.012799686220379927203971703875140519812703132629395 0.0037078006989593442072061790781845047604292631149292 0.042863127255533109427609872454922879114747047424316 0.017000947088146919211615326616993115749210119247437 0.0063903598313223529403526157466330914758145809173584 -0.04319202384471901995377507432749553117901086807251 0.0090501169742391029959804882309981621801853179931641 0.049027945660830192509127556377279688604176044464111 0.040371721053701688231019062413906794972717761993408 -0.028906165385721299676546891532780136913061141967773 -0.032983915505866566453274657533256686292588710784912 0.031059323457373531202074801171875151339918375015259 0.015255797383751198981194363568647531792521476745605 0.005717777658772788332286474144439125666394829750061 -0.0097585433186422512047419886016541568096727132797241 0.048959140836105849436954429165780311450362205505371 -0.047997323168941792570496573944183182902634143829346 -0.030755979485201062617605316518165636807680130004883 -0.033039937665916715991976104760396992787718772888184 0.041489037783312379681355253069341415539383888244629 0.025788988595339325249344852863941923715174198150635 -0.020992383025660251577582116055964434053748846054077 0.022733007283581223995083675504247366916388273239136 0.012101971366592068762857437036473129410296678543091 -0.0039960950979072758920684904637710133101791143417358 -0.028958842677558743750054759402701165527105331420898 -0.014097470095337107098831808116301544941961765289307 
0.0089993670220912050372596979741501854732632637023926 0.0040674852265525623246089637063960253726691007614136 -0.021992357565643973205116168401218601502478122711182 0.0014465072437163583804475841532166668912395834922791 -0.037974267123737213969203452279543853364884853363037 0.014362595084255845925835792797897738637402653694153 0.044999940854651920840723278161021880805492401123047 -0.016224083557711359987463239917815371882170438766479 -0.022451557806910826808888259620289318263530731201172 -0.022169117868392849285408274795372562948614358901978 0.045995018343399224347578524429991375654935836791992 -0.018089355772831695878810620570220635272562503814697 -0.0070001424757415572561192185219169914489611983299255 -0.032998082763468307432308534998810500837862491607666 -0.043006502893253049923938391430056071840226650238037 -0.034004210364962525470211573974665952846407890319824 -0.025323052812107827574950036364498373586684465408325 -0.048031021696332457104894331223476910963654518127441 0.048004773180903528850826944562868447974324226379395 0.011999668175594006142015146565427130553871393203735 -0.045024525119975830622642831713164923712611198425293 -0.02499843496428203609704965515447838697582483291626 -0.040971852994768721833995783754289732314646244049072 -0.012483338086389060908598658272694592596963047981262 0.031999203573397083655294181880890391767024993896484 -0.034026405939278338286246849975213990546762943267822 -0.039007932281719441547362947630972485058009624481201 -0.033000469640680853145031647954965592361986637115479 -0.04399735335486752718647807114393799565732479095459 0.024018112971604822086790775870213110465556383132935 
0.03199999823223390049697911763360025361180305480957 -0.029008632529238673192217845553386723622679710388184 0.041996968254642622064842782947380328550934791564941 0.019899099322219081231732928927158354781568050384521 0.016000740425465218019773772084590746089816093444824 -0.022054770798767130146611492591546266339719295501709 -0.013000000678281026234017758724803570657968521118164 -0.020976703279096533399927793084316363092511892318726 -0.023982608719435655891816239204672456253319978713989 0.035031114212702996191239890322322025895118713378906 0.017999998458884326063556002850418735761195421218872 2.9808073031804243599235046402462501191621413454413e-05 0.026999932620965821222780434140986471902579069137573 -0.0030002973664231390865664295120041060727089643478394 0.026999993948491601142292140025347180198878049850464 0.017025012984208543614927933163016859907656908035278 0.01799982466247120743707554879620147403329610824585 -0.029000121319759295662743525667792710009962320327759 0.035000298459388047567220070277471677400171756744385 0.041999998233637925171279903224785812199115753173828 -0.039142016704250895409167299021646613255143165588379 0.0090001241719299875793103282717311230953782796859741 -0.037998256011356583428106858946193824522197246551514 -0.0050752597192669215639404534101686294889077544212341 -0.031000034375104672246248327383000287227332592010498 -0.031005049468990342892427136689548206049948930740356 -0.015000000501326221299946972465022554388269782066345 -0.024000013660197057341338933156293933279812335968018 0.017999607907124022532219242975770612247288227081299 0.040045837268067104031121772322876495309174060821533 
-0.030999999999999999777955395074968691915273666381836 -0.035000000000000003330669073875469621270895004272461 -0.024000000000000000499600361081320443190634250640869 -0.030999999999999999777955395074968691915273666381836 -0.021000000000000004773959005888173123821616172790527 -0.020000000000000003885780586188047891482710838317871 -0.015000000000000006383782391594650107435882091522217 -0.021999999999999998723243521681069978512823581695557 -0.0090000000000000010547118733938987134024500846862793 0.0050000000000000044408920985006261616945266723632812 -0.0090000000000000010547118733938987134024500846862793 0.047000000000000000111022302462515654042363166809082 -0.014000000000000005495603971894524875096976757049561 0.034000000000000002442490654175344388931989669799805 -0.0010000000000000008881784197001252323389053344726562 0.016000000000000000333066907387546962127089500427246 -0.03800000000000000599520433297584531828761100769043 0.0030000000000000026645352591003756970167160034179688 0.01499999999999999944488848768742172978818416595459 0.027000000000000010103029524088924517855048179626465 -0.011999999999999996780353228587046032771468162536621 0.026000000000000009214851104388799285516142845153809 -0.003999999999999996613819774893272551707923412322998 -0.038999999999999999944488848768742172978818416595459 -0.034000000000000002442490654175344388931989669799805 0.043000000000000010436096431476471479982137680053711 -0.038999999999999999944488848768742172978818416595459 -0.0020000000000000017763568394002504646778106689453125 -0.011999999999999996780353228587046032771468162536621 0.050000000000000002775557561562891351059079170227051 
-0.0019999872904280760650685966339779042755253612995148 -0.033999997066873677287190957940765656530857086181641 0.04400000020561039421052029751990630757063627243042 0.029999999601254569853159281933585589285939931869507 -0.019999945558479899354598074978639488108456134796143 0.014999998747466035745046220029053074540570378303528 0.030000000199943314266315397276230214629322290420532 -0.048000000004963586097694872023566858842968940734863 -0.024000001938337147538993221473901940044015645980835 0.040000000035539703957532253753015538677573204040527 0.0090000000296070019334404577193708973936736583709717 -0.016000000006006955682869019597092119511216878890991 -0.049000000000394748622678520177942118607461452484131 0.039999999952889948862111424432441708631813526153564 0.021000000452899948016893816316041920799762010574341 -0.03199999999999720429189054016205773223191499710083 -0.0030000083650234083895713688150408415822312235832214 -0.010999999818173145441080329476335464278236031532288 -0.0059999999822516582662079720478232047753408551216125 -0.0109999999796665630380498868134964141063392162323 -0.012999999639355306474408635608597251120954751968384 -0.027999999998895609698568165413234964944422245025635 -0.029999998000940397008262650047072384040802717208862 0.04700000380504462671460430556180654093623161315918 -0.0019998022625788433939697519292622018838301301002502 0.03899999999448548054781227278908772859722375869751 0.010000000006381515316178365537780337035655975341797 0.037999999810094518826186771320863044820725917816162 -0.013999999964161067775303415317011967999860644340515 -0.013999999857000455794064919246011413633823394775391 
-0.037000934859143408406367825591587461531162261962891 0.035002804529500157471044730073117534630000591278076 0.039998000935539915201566429914237232878804206848145 0.034995697343956716496293779528059531003236770629883 -0.014992750819801926864816010720460326410830020904541 0.017997152174734288437862872456207696814090013504028 -0.02999983012206461005511037853921152418479323387146 -0.034012027295236335611150479962816461920738220214844 -0.0039981889457937425449984836234307294944301247596741 0.027008464728246351499452160282999102491885423660278 0.011998892025377579095835045563944731839001178741455 -0.02399651155237203861703143559225281933322548866272 -0.030000768597671478854493898325017653405666351318359 -0.018000109525043855862591613004042301326990127563477 -0.046002634174572683278814366758524556644260883331299 0.049011812460816754632997316321052494458854198455811 0.048999521732693965270222236085828626528382301330566 -0.010004249810409371335140349401626735925674438476562 -0.044990827328529887918495688836628687568008899688721 -0.046000171083238360070222228159764199517667293548584 0.02999792551259793452200774765969981672242283821106 0.016007272619019283221852845144894672557711601257324 0.042007410494162830683073650561709655448794364929199 -0.042001966811460643425046868060235283337533473968506 -0.025008756147373235184661055541255336720496416091919 0.015991901396399589574404132008567103184759616851807 -0.028003923891224465764215878493814670946449041366577 0.0049997036024981445639925325963304203469306230545044 -0.043000132901705526156099779200303601101040840148926 0.001007905276231501560252334925849027058575302362442 
-0.046000035242692943748821221561229322105646133422852 -0.017167079758268481010086148330628930125385522842407 -0.017044809906322497261577098015550291165709495544434 -0.0074225158606037872077720862762362230569124221801758 0.0049549336705263140670507659990562387974932789802551 0.02801618182485516792001867258932179538533091545105 -0.032002597209526147115088434702556696720421314239502 -0.04889949255226337665458657966155442409217357635498 0.040267997212212108815165834130311850458383560180664 0.015882026832406366534389263733828556723892688751221 -0.0019973133886565571509796868099329003598541021347046 -0.026980083725089063634294817006775701884180307388306 0.030048117990856534897936569450394017621874809265137 -0.031999466689427748244956006828942918218672275543213 -0.03299514090082070194576147059706272557377815246582 -0.0010570129099231220619337090482758867437951266765594 0.013013283046404233375681336326579184969887137413025 -0.019941503652138401619930974106864596251398324966431 -0.010026478522703288764894580253894673660397529602051 -0.040999720068776682180278214673307957127690315246582 -0.045967487269212743694613010347893578000366687774658 0.0077686555048624289510073026576719712466001510620117 0.012013675275627787655818856649148074211552739143372 0.0029587428493628021956840523642995322006754577159882 0.017042735882474350367354887225701531860977411270142 -0.02774984235877813940063241204825317254289984703064 0.0079942962528993244397668149758828803896903991699219 0.047002445335691173111669627360242884606122970581055 0.0060010237515229413948758541152983525535091757774353 -0.01901063624091359552381597097792109707370400428772 
0.04377702222797081460514689865703985560685396194458 0.0071162252667437116485094072970696288393810391426086 -0.027643138234275804743234061788825783878564834594727 -0.041300926523324170414053213562510791234672069549561 0.043863983231603051460290032537159277126193046569824 -0.021843961284510837045358400132499809842556715011597 -0.016997163715091204161389271121151978150010108947754 -0.0044491612540552552199080160733046795940026640892029 0.039685706899060639585297138864916632883250713348389 0.049042893411510399270802906812605215236544609069824 0.0030711971466099931456217309033718265709467232227325 0.0064544583103004239676980802187244989909231662750244 0.020718115859331330541603932715588598512113094329834 -0.045952866899990854610003054858680116012692451477051 -0.0097378784390768288736772717584244674071669578552246 -0.035280173741545295396093706585816107690334320068359 0.049614185961985787787220658628939418122172355651855 0.016830805315049747472588848040686571039259433746338 -0.014591952646638078200380661542112648021429777145386 -0.027984469473906752046143964207658427767455577850342 -0.0055950868775832447721274576224459451623260974884033 0.0040913111695070943779617422819683270063251256942749 0.036129124279530099028701073393676779232919216156006 -0.02993368387903291849561071558127878233790397644043 0.0013249840337923458454677527740273035306017845869064 -0.040170217639869373882355318983172765001654624938965 -0.0266692059662543730358397198187958565540611743927 0.019915707219425142493474112370677175931632518768311 -0.043982946673129082182374105514099937863647937774658 -0.0066941928593776539591075902535521890968084335327148 
-0.014244378383790777184425557777558424277231097221375 -0.01461579891159786072363235831517158658243715763092 0.047882974555991331122584142576670274138450622558594 -0.048027105699869732102769148696097545325756072998047 0.045690601776079503570926476641034241765737533569336 0.021847232941497051611490221034728165250271558761597 -0.0099840615240178055139752544278053392190486192703247 0.019741013930093993106185124020157672930508852005005 -0.022097195745846055087158177343553688842803239822388 0.043689339318650030619117785590788116678595542907715 0.0084097227799121709868046536939800716936588287353516 -0.01739132862313324395797664578822150360792875289917 -0.022732110936061745293246261212516401428729295730591 0.027388551883936775033223653963432298041880130767822 -0.038946528024200427475776109531580004841089248657227 0.026524139990156715696034694929039687849581241607666 0.03308755179819211633684972184710204601287841796875 0.040831839195930447194982093606085982173681259155273 0.038143042479046075643456248371876426972448825836182 -0.014987928379719133928360541574420494725927710533142 -0.046655381495084725929078928174931206740438938140869 -0.039390544647349472195951847197648021392524242401123 -0.0255936978424049499380998895503580570220947265625 0.050698431016235494250832260831884923391044139862061 0.040380106119670133857368909957585856318473815917969 -0.032704853651596532682077622666838578879833221435547 0.035844295310554309674788697748226695694029331207275 0.042568093349138018399724359142055618576705455780029 0.03525291773898315411672754748906299937516450881958 -0.038624787952467896923192114400080754421651363372803 
0.00055436794765766582698124365080616371415089815855026 -0.033651905060633431621130995381463435478508472442627 0.043117232967191200521117622201927588321268558502197 0.029588318900357370860865202644163218792527914047241 -0.047101877214840340291068798705964582040905952453613 0.035815888124879902143504750711144879460334777832031 0.01796206268840798425667770743530127219855785369873 0.027892368151048639590694477874421863816678524017334 0.010249255543485285072091706126684584887698292732239 -0.045427843962512884368187826567009324207901954650879 -0.013755047436977110159039838777061959262937307357788 -0.013370102915907212948187776646591373719274997711182 -0.0053646574829851372337441439697158784838393330574036 0.0088142548699823210917037030753817816730588674545288 -0.0075913563051906093881449066884670173749327659606934 -0.0074617702572560675247648198649130790727213025093079 0.020810036836411381633293871118439710699021816253662 -0.025579067573984429900812997971115692052990198135376 -0.037512576861696157737302570467363693751394748687744 0.0025142225937296309827562179606275094556622207164764 0.01725854138760100214833315135365410242229700088501 -0.0032649523553747827712967488622552991728298366069794 -0.0077725338760697617462858133308145625051110982894897 -0.0065563378282849577374791216755056666443124413490295 0.059591777807932996835482697406405350193381309509277 -0.046027570272298173881253546824154909700155258178711 0.024336753339424321146422514061669062357395887374878 0.011007448678357177260234145421691209776327013969421 0.021645097530034702187906603398914739955216646194458 -0.0013211097260509749827528391818987074657343327999115 
-0.042073827993761865606803240780209307558834552764893 0.065498904767602769694256892307748785242438316345215 0.0018829487998400220791217485327706526732072234153748 -0.043347241186275281554785010484920348972082138061523 0.039152497695486850048940397073238273151218891143799 -0.11413282061301335823522151713405037298798561096191 -0.018306147815331404865579756346960493829101324081421 -0.072804619158815697677056277825613506138324737548828 -0.025244016189968722374548093512203195132315158843994 -0.031748710643042181434037019016614067368209362030029 -0.0050671154765730983329796721648108359659090638160706 0.0077901426733479406730453753482379397610202431678772 0.099619362338228295561393110801873262971639633178711 -0.045772183114329526021357708032155642285943031311035 0.03854523759960420264958358416151895653456449508667 -0.084031757927084560488850684123462997376918792724609 -0.075908292968888624319134805773501284420490264892578 -0.012904403422252144761905867653695167973637580871582 0.011464579701697192454235008085561275947839021682739 0.033561827522154218106376077912500477395951747894287 0.027901439625045050541007896072187577374279499053955 -0.057358695084275504449955462860089028254151344299316 -0.05454274712306519251603376119419408496469259262085 -0.027431494254433193974440641227374726440757513046265 -0.01445092302355381781719945166742036235518753528595 0.12386806114563127245720153268848662264645099639893 0.017050410159813698951492000333018950186669826507568 -0.0069080596514980953035123256711358408210799098014832 0.15767287435470808687476562681695213541388511657715 0.023051885533788972482138746045166044495999813079834 
0.0027416670609597482491381903457750013330951333045959 0.62860775108735389427039308429812081158161163330078 -0.018492175883995511792567967290779051836580038070679 -0.07076035540091155096042996319738449528813362121582 0.24227917779393909336604906457068864256143569946289 -0.59859080620678040141058318113209679722785949707031 -0.027691696384773655664757185945745732169598340988159 -0.043292098497596381845298196822113823145627975463867 -0.0018126846012090510294745282493522609001956880092621 0.20484571570500720305574304802576079964637756347656 -0.033622615829099283812908538493502419441938400268555 -0.045925886403266766300212964324600761756300926208496 0.12452273326026415400935576371921342797577381134033 -0.21424022673028081387158749748778063803911209106445 0.31886206112189929839928481669630855321884155273438 -0.011899450322647204744686000310593954054638743400574 -0.16272816924549352024520487702829996123909950256348 -0.019638648661521304616961458577861776575446128845215 0.087905316717986042851507022533041890710592269897461 0.016808626380781403059083700668452365789562463760376 0.041513823338191258027762842175434343516826629638672 -0.13070442599146073203719708999415161088109016418457 -0.17417064915931523838565908590680919587612152099609 -0.17634091213597705150029071319295326247811317443848 0.049007519996497932168733058233556221239268779754639 0.12542969805589712639637411939474986866116523742676 -0.00463231233604322056862656609155237674713134765625 -0.12928281019031889753634345652244519442319869995117 0.42535631357125891494064262587926350533962249755859 0.20467660727769057538161234788276487961411476135254 
-0.032399739250865734752071745106150046922266483306885 0.2703773872978601500172146643308224156498908996582 -0.045912807313362231920184086675362777896225452423096 -0.016940156361248046718026571966220217291265726089478 0.10182752643770268119460808975418331101536750793457 -0.27930473978046721494905568761168979108333587646484 -0.045006562049195633634646185328165302053093910217285 0.038831123866465866445452093103085644543170928955078 -0.051175305581519787978539426376300980336964130401611 0.061960143057392690069118401652303873561322689056396 -0.012753955747723205380039779299750080099329352378845 0.029552417009602590519667941748593875672668218612671 0.035910854334016348299307708202832145616412162780762 -0.12783690655286444881610918855585623532533645629883 0.16549419634445292071056599070288939401507377624512 0.017068196516380626515108076546312076970934867858887 0.0095982838081013644587757838166908186394721269607544 -0.051551161584777037416582601281334063969552516937256 0.065381900674231635539612739194126334041357040405273 -0.0078465288495931581613795913199282949790358543395996 0.066164407297753788372851602161972550675272941589355 0.0080632262694627070825914572083092934917658567428589 -0.033985299688104923798714906979512306861579418182373 -0.05090305225445677234086261364609526935964822769165 0.017550192493158183609791578305703296791762113571167 0.030884190862505926655767751753955963067710399627686 -0.033011112707590627157738794039687491022050380706787 -0.1182621622652549192578064207737043034285306930542 0.16164713038126482524958760222943965345621109008789 0.087012130284137650937381636140344198793172836303711 
0.014442193481511491140456548976089834468439221382141 -0.082412047771086391345640720373921794816851615905762 0.033912013117434518238990648342223721556365489959717 -0.061313667221138304364025373160984599962830543518066 -0.027068984969144321145462228628275624942034482955933 0.079463412851533785086211025827651610597968101501465 -0.043338839375927043495728696598234819248318672180176 -0.027934141793348691434895059160226082894951105117798 -0.026854568215326828084510424332620459608733654022217 -0.031882161035712779095785407434959779493510723114014 0.035896222956428677774987079374113818630576133728027 0.0034725224488252235365004505496244746609590947628021 0.010216151652961498810801010961313295410946011543274 0.037357546884027661993066260492923902347683906555176 0.030901627650785194051374915602536930236965417861938 -0.017799362714593227469128677853404951747506856918335 0.00033900111322057903265672629267157844878965988755226 -0.017956213103959596522063435486415983177721500396729 -0.027582189165824312626629222222618409432470798492432 -0.022735871919031529209132003188642556779086589813232 0.086749976474680620674995168428722536191344261169434 0.027978974649140231356625463376985862851142883300781 0.024555687644953083648147185158450156450271606445312 0.062216507763492023830309562981710769236087799072266 0.00011324455188934316035836297187344712256162893027067 0.042739820254833450763332081123735406436026096343994 0.051532102793370046511789439591666450724005699157715 -0.041697204673550793130321068247212679125368595123291 -0.022245586981365150086586979227831761818379163742065 0.031047529374421966447128440336200583260506391525269 
0.034694504980566961971355510740977479144930839538574 0.011377685703511691839295849604241084307432174682617 -0.012981812394489814638243174726994766388088464736938 -0.061783366456338834060701969974616076797246932983398 0.0027816523071023673170654166852955313515849411487579 0.048563416700225431332782477511500474065542221069336 -0.0093355087629208265143088141257976531051099300384521 -0.049347823977243507331813532346131978556513786315918 -0.011629982013573313126553188112666248343884944915771 -0.020857089695803663481621370578977803234010934829712 0.013781143472070588387734524360439536394551396369934 0.0075257771238430529875396146621824300382286310195923 0.03357781257635845950648700863894191570580005645752 0.062339223102083236860426751491104369051754474639893 -0.020325280978559991107434967716471874155104160308838 0.032167095366097776809599650960080907680094242095947 -0.056310934878028538752570142378317541442811489105225 0.02184797250031690271643292078351805685088038444519 -0.063226198598993324506700730580632807686924934387207 -0.0075861093185050649384537635455671988893300294876099 0.10005629527546575086027758061391068622469902038574 -0.04230712934402713898407455417327582836151123046875 0.042532586902516093807502528534314478747546672821045 0.022136447653214551961609046770718123298138380050659 0.010636847680915193642414706687304715160280466079712 0.014991182772965159358813380663377756718546152114868 0.046619453052920034608064270287286490201950073242188 -0.022640311810387996060978110790529171936213970184326 0.0038095205848426368262782393259158197906799614429474 0.0037843818903900237199389167130902933422476053237915 
0.036976082694985631937889536402508383616805076599121 0.03894926063631906631989920697378693148493766784668 0.0030339868206267217587424056546296924352645874023438 -0.045832234785137378196839819111119140870869159698486 -0.034260529273706603892168942593343672342598438262939 -0.013507095448389737010752575940841779811307787895203 -0.032895744225966444540532052087655756622552871704102 -0.027140838190488025122304449610055598895996809005737 -0.012240721364237094892502000220702029764652252197266 0.037353480840346640901028507641967735253274440765381 0.0023009161488873109725761256783016506233252584934235 -0.0048446702084504883467630520499369595199823379516602 -0.022851812068782499653973872000278788618743419647217 -0.0092110856299859929924300772086098731961101293563843 0.017062184198230957027364596001461904961615800857544 -0.02483918824773746411582742155133018968626856803894 0.01742188614773159879844932618198072304949164390564 0.01137381270562701565673968673308991128578782081604 0.029442133067769316739914486902307544369250535964966 0.010396059212180137204528662664415605831891298294067 0.023236797858626544871496477639993827324360609054565 -0.027788098982811211545840279768526670522987842559814 0.036986919752793966098547429055543034337460994720459 0.028702504796149629073820364055791287682950496673584 0.012684879488273358844052651761558081489056348800659 0.043002906428238875380376526891268440522253513336182 0.018389008608127838106938156670366879552602767944336 0.03375989770849027737931180581654189154505729675293 0.054052585421952119293376171071940916590392589569092 0.022279904049827641693282131996056705247610807418823 
0.033833392228702838244736028627812629565596580505371 0.066393417644508900821165298111736774444580078125 0.040399250977625048020236420143191935494542121887207 0.024607913172584112287966107146530703175812959671021 0.00018746121350831312056539612598271560273133218288422 -0.077141884384398007323824231207254342734813690185547 0.021698986807455872966032828230709128547459840774536 -0.021068014417812658961581817607111588586121797561646 -0.032134159772049405989768899871705798432230949401855 0.061527172492396302316830514200773905031383037567139 -0.01369023069718274497608145878757568425498902797699 0.021005043138817125480954928207211196422576904296875 0.0073527177050007296033040660176993696950376033782959 -0.027232194678538861748462451828345365356653928756714 -0.023369093359452398905862224864904419519007205963135 0.075566170770275303825158630388614255934953689575195 -0.02658963425943949507312957791782537242397665977478 0.026856452938669967550611161755114153493195772171021 0.083248305494145885541357188230904284864664077758789 0.04536023582040492330147429811404435895383358001709 -0.02008605111064917445040656218679941957816481590271 0.016696275504557170354935635714355157688260078430176 0.0072380183125745553573970880734123056754469871520996 -0.0077279862743051394233240181108612887328490614891052 0.014169701532957887715746814194517355645075440406799 -0.016089279197625195455545465961222362238913774490356 0.06031047121286541023987837206732365302741527557373 -0.0074763640173475878758502233267790870741009712219238 0.062543536966256044196121877121186116710305213928223 0.085414211290096492268375527601165231317281723022461 
0.11451249575952186787741737816759268753230571746826 0.30977543701286358590607505902880802750587463378906 0.057547931161748035189251737619997584261000156402588 -0.018042348425138330508810113883555459324270486831665 0.020859816596366570484732960721885319799184799194336 -0.27190553415318274854683977537206374108791351318359 -0.031090150874771245448346945750017766840755939483643 0.021451735490950488149941577376011991873383522033691 -0.1092247522523669273075697105923609342426061630249 0.022746763734838415516037457564380019903182983398438 -0.023361336107202292089457529300489113666117191314697 -0.2001465607266237067829450779754552058875560760498 0.05771763780898453433110262267291545867919921875 -0.15375538882115769023783968805219046771526336669922 0.075346849336082655224089421608368866145610809326172 -0.089569269369659504365088764643587637692689895629883 0.043836519627131927123731003348439116962254047393799 0.07870777612728144245757277985831024125218391418457 0.13021134470687314999004513538238825276494026184082 -0.018418061225858428642254693841096013784408569335938 -0.023365037805520558200633729484252398833632469177246 -0.058440987876195053807304446991111035458743572235107 0.00069500279102244406394250919589694603928364813327789 -0.065779933933268808221583867634763009846210479736328 -0.010190601620672331759087647640171780949458479881287 0.099703561044462124529630386859935242682695388793945 0.12024286629483596500200803802727023139595985412598 -0.065760588694848048918473182311572600156068801879883 0.18280792660685901696027144680556375533342361450195 0.067228470531674397459021008671697927638888359069824 
0.11759262740510485756306735538601060397922992706299 0.12064485337435063017075265179300913587212562561035 -0.021173398890739960481743864306736213620752096176147 0.036038688622091967495020270462191547267138957977295 -0.047303347179749682949179145907692145556211471557617 -0.0592427543472976644856053951571084326133131980896 -0.02150634681563018749117510708401823649182915687561 -0.051874623084278870255303672820446081459522247314453 -0.17297528919641880218449614403652958571910858154297 -0.072710080461091258774430912126263137906789779663086 0.005059157885531770197651280085437974776141345500946 -0.28431306694701830029003986055613495409488677978516 0.16452800313181908942183895305788610130548477172852 -0.071528645176864941168659584036504384130239486694336 0.10739596074932619695907476398133439943194389343262 -0.16775159836005945623860213800071505829691886901855 -0.00051222892503943924253501096544027859636116772890091 0.088511442449048655101151439339446369558572769165039 -0.0029351515991788358801717340185177818057127296924591 -0.018983125248587646993758681901454110629856586456299 -0.068791108343346701881060312189219985157251358032227 -0.036757082880290947723977978967013768851757049560547 -0.096962182708903915662190797775110695511102676391602 -0.064848806545402218337592614716413663700222969055176 0.05146118574616801583099245931407494936138391494751 0.12134429923445973209528148117897217161953449249268 0.094822196226137953067869545975554501637816429138184 -0.0086162094568209540018655090420907072257250547409058 0.12461258272908033728487708913235110230743885040283 0.073393872720438027568157224322931142523884773254395 
0.020403457460635560788420050926106341648846864700317 0.028876703143641380133743723490624688565731048583984 0.0011194735372556949629108125066068168962374329566956 -0.10882694837010357946649463656285661272704601287842 -0.0036146389609342704021810455117247329326346516609192 0.036186176593710699112005357847010600380599498748779 0.030349238328851682600095784891891526058316230773926 -0.046011960794751283199133240486844442784786224365234 -0.097662951677868120592407308322435710579156875610352 0.0093462807967146024901161638354096794500946998596191 0.019623594045291924137242034476003027521073818206787 0.068690185033184358864843943592859432101249694824219 0.027242661624764605982074172629836539272218942642212 -0.032875342912166947983987341785905300639569759368896 0.019395084824998572864407364590988436248153448104858 0.020530532577116171466524718880464206449687480926514 -0.12605423099520704499632017814292339608073234558105 -0.024677671888390085436215670711135317105799913406372 -0.012041467703846111744758751171957555925473570823669 -0.023152984814167734683998389755288371816277503967285 -0.016856035830031299016518175903911469504237174987793 -0.002049283361518879770235557202795462217181921005249 0.015393239268360054197715136581336992094293236732483 0.013828197832830776969892383476690156385302543640137 0.043655533859874015578661499148438451811671257019043 -0.065652038619770272664943888685229467228055000305176 0.037570097776354893781558530463371425867080688476562 0.026358408233037176199298201595411228481680154800415 -0.028367319517566807335340328677375509869307279586792 0.10387541596362934170905134578788420185446739196777 
-0.029420432207185962664164335933492111507803201675415 -0.031689872822601342083892461687355535104870796203613 0.024180864563555469481936910369768156670033931732178 -0.066460335842317197485584756577736698091030120849609 -0.038605941927881901043484447200171416625380516052246 -0.039181980009801595232765691889653680846095085144043 0.0051499422143601019524750128653067804407328367233276 0.033532624783329328943537461782398167997598648071289 -0.060318730821293901900315148623121785931289196014404 0.029220356883120700980382977718363690655678510665894 0.044548111431770974488753012110464624129235744476318 0.0026376305894966643392218763608525478048250079154968 -0.024076421768163703412968246198033739347010850906372 0.031918466821091687202205378071084851399064064025879 0.016952415255033527474726184891551383771002292633057 0.04248136655297894692662197257959633134305477142334 -0.065125081590285585630972775561531307175755500793457 -0.016381311788412209612397774094461055938154458999634 -0.014855883459713432534488042335851787356659770011902 -0.039789778531318251153514609086414566263556480407715 -0.0248503713700168223088571295420479145832359790802 -0.0038445830664643166306448929248062995611689984798431 0.020935694745408336969738627431070199236273765563965 -0.030591178206088427693476461399768595583736896514893 0.018715762751706034594523231362472870387136936187744 -0.013534901618343362847407540527910896344110369682312 0.013518243137503983125613515881013881880789995193481 -0.012510649036055566940550676235943683423101902008057 0.043427696172817886743899862267426215112209320068359 0.023690763463622175472034214749328384641557931900024 
-0.029176874153869190170462744049473258201032876968384 -0.046638609621076361488878347927311551757156848907471 -0.032043280383942676636799262723798165097832679748535 -0.029926207184063295663190018558452720753848552703857 -0.028416403480142266024799369006359484046697616577148 -0.0055282897677900308050502609091836347943171858787537 0.012422150112426958226685691499824315542355179786682 0.019490464904244199362270961728427209891378879547119 -0.050707292621855484804349600835848832502961158752441 -0.028535594215601662454462328355475619900971651077271 -0.0099335840030952918949802565862228220794349908828735 -0.043356934366774950440071023649579728953540325164795 -0.035123053311061601389209130275048664771020412445068 -0.016516495907774094570319434183147677686065435409546 0.017511112036518179657651472780344192869961261749268 0.0040538550793381665504622191065209335647523403167725 -0.036653249931632297942130094270396512001752853393555 -0.019946464350212175786758450612978776916861534118652 -0.0072888556752335256772035165795387001708149909973145 0.0028761949455048843420079673904865558142773807048798 0.0035688203377165043927998766548626008443534374237061 -0.04245048858628923393876419822845491580665111541748 0.044513770260293114566785277474991744384169578552246 -0.013518408420383326226654752133526926627382636070251 0.027091382082731759600724430470108927693217992782593 0.019846237847589671271508748873202421236783266067505 0.046046638124547928372365390714548993855714797973633 0.010533847873689930127460989695009629940614104270935 -0.0038165571506605022386593439875923650106415152549744 -0.023570925707648508751201887889692443422973155975342 
0.025987473071028797944048704948727390728890895843506 0.049424018275671693922745930649398360401391983032227 0.043200784761708341252806064858305035158991813659668 -0.014074413019743433478359051491679565515369176864624 0.007088414974975198144802046584800336859188973903656 0.027660795618765502551505974793144559953361749649048 -0.0092786717789085735447196512382106448058038949966431 -0.0038242308339024293911689866831693507265299558639526 0.020142753421824716869581450851001136470586061477661 0.012994275966183679513199500377140793716534972190857 0.036127228478430958857892107971565565094351768493652 0.042175721819877824703137747519576805643737316131592 -0.030324618630531159635399518492704373784363269805908 -0.0071099994838963427937206240869727480458095669746399 -0.021074380681634401896173969248593493830412626266479 0.0097771360861489409188607169198803603649139404296875 0.013364014872033437228426855369889381108805537223816 -0.0035611789911643367163851525702966682729311287403107 -0.032602412752923387584402803440752904862165451049805 -0.021856185041780704092495568602316780015826225280762 0.02677831636412499050070579187377006746828556060791 -0.0035701918580581457063338746138470014557242393493652 -0.048925944560537462657556773137912387028336524963379 0.022857353176725429821924961970580625347793102264404 0.058524446449415665205684433658461784943938255310059 0.042860371747591795299481276515507488511502742767334 -0.0040433505424669821670669023205846315249800682067871 -0.020983155442414549302077020342949253972619771957397 -0.049237590874097562909650349638468469493091106414795 -0.0068369183926370747511613856772783037740737199783325 
0.043000739065880054512458485760362236760556697845459 0.013969482239109196064497098177525913342833518981934 0.033970241938921008628682329799630679190158843994141 0.022919397365962386470261691329142195172607898712158 -0.047444352445054668865331848337518749758601188659668 -0.040012622135419825819546701950457645580172538757324 -0.028338951389688928073073981295237899757921695709229 0.037068244297578753498889625461742980405688285827637 -0.035644693238595488715692027881232206709682941436768 0.020148259308536673600764643765614891890436410903931 -0.018098948628855273529358882456108403857797384262085 0.0080429219207555219250949107845372054725885391235352 -0.029979078590587820984936229251616168767213821411133 0.037010093944280224309562044027188676409423351287842 0.0070065713859091740406404014152030867990106344223022 -0.032999856517887109219611119215187500230967998504639 0.004984827377631173561667310423217713832855224609375 0.0049430163165913518219518607565987622365355491638184 -0.035036063064055197879831382579141063615679740905762 -0.033999937913930307342713632579034310765564441680908 -0.012209946975813649669428961885841999901458621025085 0.017273009297974234454997599641501437872648239135742 0.048006157989690351195477546752954367548227310180664 0.027905109200643828798460432949468668084591627120972 0.010160945715211281911716234560572047485038638114929 -0.036993096384918898456017899434300488792359828948975 0.041994283489406869502857944098650477826595306396484 -0.01800001195111634519352428185356984613463282585144 0.025016462902058153594531120234023546800017356872559 0.014043973018562435836620316820244624977931380271912 
0.028005250175092404746335361664932861458510160446167 -0.025000026487069195585410952276106399949640035629272 0.035000199131110527883681271532623213715851306915283 -0.015999997101669646837329707977914949879050254821777 0.00099950823606197516935090163769928039982914924621582 -0.021999988068749355002440282191855658311396837234497 0.049999999389588656306671055062906816601753234863281 -0.020010369343992005092269792498882452491670846939087 -0.040007679083816208298607364213239634409546852111816 -0.0050000000162967279601633485697220748988911509513855 0.015000005017752233993366672848424059338867664337158 0.0019999999279178993366601346792776894290000200271606 -0.036999999996663562873422392840438988059759140014648 0.03000002832014728518239543575418792897835373878479 -0.014999900822143806197739301921956212026998400688171 -0.041999999959762390755457772684167139232158660888672 0.034000074962085534424627297767074196599423885345459 -0.048999495784014565624708836821810109540820121765137 0.0099999990515516039985000062983999669086188077926636 -0.038999896271284230364617684472250402905046939849854 0.0040001203594554222628398854055831179721280932426453 0.041999999993775641304871726333658443763852119445801 -0.028001019759103597944749353132465330418199300765991 -0.023960548674597188789636703631913405843079090118408 0.0039982317880858046083014656346676929388195276260376 -0.020000005096117726144377968466869788244366645812988 0.047004759099683789125290189758743508718907833099365 0.0039999823280332412120396945454103843076154589653015 0.011999999675441007720988473295165022136643528938293 0.00899999870832327367176084464972518617287278175354 
0.042121857316922403646763939377706265076994895935059 0.013939010195642384179470774085984885459765791893005 -0.029015522803485738201345611741999164223670959472656 0.019324001123941988988796936155267758294939994812012 0.037798696759263700206687985883036162704229354858398 -0.023067197704697464666345751993503654375672340393066 0.023002969885346412348692268778904690407216548919678 -0.029796014736283526341820149241357285063713788986206 -0.0078683183255740217487694820874821743927896022796631 -0.045165406323333344429382663065553060732781887054443 0.0020137566924211900559749111039309354964643716812134 0.042716492494422296510858672036192729137837886810303 -0.0039527019899505749442325530651487497380003333091736 0.020680364058862026055418681380615453235805034637451 0.02503081466687151826477908400647720554843544960022 0.012832443080351118788740016896099405130371451377869 0.027165016142256144526800909488883917219936847686768 -0.031934913071921013083542817412308068014681339263916 -0.023078929516644135222502853821424650959670543670654 -0.035986847307897362746587077708682045340538024902344 -0.0051858325149293626327162698430583986919373273849487 0.021879327223780817290865741142624756321310997009277 0.029892766154735437439393663794362510088831186294556 -0.014093255239851873450440677970618708059191703796387 -0.020001096223208874452792471743123314809054136276245 0.039242211933078731400659222572357975877821445465088 -0.00098851907988714354455495048057400708785280585289001 0.029005480144410792503473217607279366347938776016235 -0.031991034237103012360936560298796393908560276031494 -0.026121487163812812798413531822916411329060792922974 
-0.013438677515528430275737470367403147974982857704163 -0.039743253292388154573888670029191416688263416290283 -0.020212279777250027890111994111066451296210289001465 -0.028778828563010387664444778010874870233237743377686 0.020882992854421657952235236166416143532842397689819 -0.042930140757013207641890062404854688793420791625977 0.049991595707831973371959577434608945623040199279785 0.007836370534718938019036471587241976521909236907959 -0.019555664356599326836327890077882329933345317840576 0.027466537311759790795928637407996575348079204559326 0.03892479215565611272431567613239167258143424987793 0.047386928796085248105640630456036888062953948974609 -0.03021454465859657947945926537158811697736382484436 0.016540429266498228588755381451846915297210216522217 -0.012203979858571956801371882761486631352454423904419 -0.031778349837354460949434553640458034351468086242676 -0.031327282933182064306176783929913653992116451263428 0.04088857920445253257835105387130170129239559173584 0.034750377087850267687763050616922555491328239440918 0.048913645394283666867352167173521593213081359863281 -0.028608759701643338146936912380624562501907348632812 0.001094155685870512378574104239703501662006601691246 0.012703866888801986292922840959818131523206830024719 -0.0095820586113958081814212519589091243688017129898071 -0.031029107862451076049747911156373447738587856292725 0.026028717307223173810237781822252145502716302871704 -0.0051572839366165624391813437910059292335063219070435 0.011484575696688075624463110102624341379851102828979 0.028840312053020372706768625903350766748189926147461 -0.020696707655234247019704341141732584219425916671753 
0.0053588950982567809880330322869212977821007370948792 -0.020482910894023369230421138809106196276843547821045 -0.0357363504539937246184955199623800581321120262146 -0.030334840697940162329571123223104223143309354782104 0.021585332994458077127131190309228259138762950897217 0.038036136194362309137506628076152992434799671173096 -0.030296753088694328842622738306999963242560625076294 -0.034882418337419951459565936602302826941013336181641 0.031740195310465513234277068477240391075611114501953 0.057952993691581813906488207521761069074273109436035 0.0037921661734757420442187836329139827284961938858032 0.055992810681495759628223396475732442922890186309814 -0.00048921448641791047580451579079863222432322800159454 0.067612371346328623000765389861044241115450859069824 0.019489698064426203699683881609416857827454805374146 0.028645311519951453110843786475925298873335123062134 -0.059468282207343792222786760248709470033645629882812 0.016501439525725598161942642150279425550252199172974 -0.016920149055597129977845938242353440728038549423218 -0.030949983926020097763087690623251546639949083328247 -0.0079374485507856928218073377934160816948860883712769 -0.016285625145864998652989186211925698444247245788574 0.030334191588203201356277460831734060775488615036011 0.0091514528703966896427957067317038308829069137573242 -0.035765194656127180516946850730164442211389541625977 -0.027087870520622024661516746846245951019227504730225 0.02986695340249805388777026848856621654704213142395 0.033469321277780107737331860562335350550711154937744 0.015071547213433081346956043944373959675431251525879 0.0036335998618819836947224644063680898398160934448242 
0.027968772916957360119560860312049044296145439147949 0.060846577451860256458004982960119377821683883666992 -0.072335840381044555491563130544818704947829246520996 0.10745613283132693371868526810430921614170074462891 0.06472098473114971939335049455621629022061824798584 -0.014059596067413401843104736599343596026301383972168 0.017080070791943034735904660692540346644818782806396 -0.032044920283664166116288640751008642837405204772949 0.078760958772186376308788169353647390380501747131348 0.040213150126245947313385897814441705122590065002441 0.030857053517655063518132507738300773780792951583862 0.061142550111423804581889385190152097493410110473633 0.01141365670325747427860108018649043515324592590332 0.07626146277725144584369587619221420027315616607666 0.021776752906978287527284265934213181026279926300049 0.11187613858325692883788349263340933248400688171387 -0.025495532171716149549833829723866074346005916595459 -0.051688295045444504483000969230488408356904983520508 0.013482148816801526811093303592770098475739359855652 -0.003330038878664334876106289939912130648735910654068 0.16177002760553085836114917128725210204720497131348 -0.057179977439663062788177683160029118880629539489746 0.0432972119580562683771596255155600374564528465271 -0.031933416308565679142539295298774959519505500793457 -0.029351472390198560941110272892728971783071756362915 0.046826739145737136804648059751343680545687675476074 -0.1276135710503282783001566258462844416499137878418 -0.067400592753048646499358653727540513500571250915527 0.018148471540252671813098217512560950126498937606812 0.090437910837528098784154906297771958634257316589355 
-0.018366177407581455588436725179235509131103754043579 0.37881861173276132337406352235120721161365509033203 -0.25612578910502648010805160083691589534282684326172 0.033859436142312016038147248764289543032646179199219 0.48059698003439044189377682414487935602664947509766 -0.11083527768083459297265846998925553634762763977051 -0.038586517667775002693453245683485874906182289123535 0.027241145688752799181031605257885530591011047363281 -0.0047083151545776521368358302765955158974975347518921 -0.058892178345894455326892114044312620535492897033691 0.00023326939083671065721346804533453678232035599648952 0.048277451954018175961369507831477676518261432647705 0.081191771245659904998603906278731301426887512207031 0.068195479589280016963215302894241176545619964599609 0.013455394774122145587491594653783977264538407325745 0.45875941163221167773400566147756762802600860595703 -0.27762763422030345417113039729883894324302673339844 -0.16100140584337663263170270511182025074958801269531 0.22197903291686824078787765301967738196253776550293 -0.048888606274642733284796491943779983557760715484619 0.41707985572070688240486902031989302486181259155273 0.066034859758609287805342091814964078366756439208984 -0.11288865926241097026316850815419456921517848968506 -0.28203434040192204568242573259340133517980575561523 -0.20400392033125630542045314541610423475503921508789 0.024248788700381308791609313857406959868967533111572 -0.29702349063536270801222372028860263526439666748047 -0.1520049075272776606393421161556034348905086517334 0.20255429795978821538859904194396222010254859924316 0.09119132305466173815666763857734622433781623840332 
0.030646628782197319479374542083860433194786310195923 0.24608748605390426411609894330467795953154563903809 -0.20966283944439731423692307998862816020846366882324 0.14814322185194311876088590906874742358922958374023 0.43006876114020314849639703425054904073476791381836 -0.21541370814391985755165137561562005430459976196289 -0.024116669082366735260558598952229658607393503189087 -0.13808159304583880744310420141118811443448066711426 -0.05867227158926583557851941463923139963299036026001 0.082007956040632726257832985083950916305184364318848 -0.05855582588986305014877586927468655630946159362793 -0.027284322744922425568736557011106924619525671005249 0.061007140169554968656129290138778742402791976928711 -0.095440689863568670125992809971648966893553733825684 0.15611257765647140738352049993409309536218643188477 0.39204689059809738616024787916103377938270568847656 -0.40259629832672511051683272853551898151636123657227 -0.13514848860326211799076645547756925225257873535156 0.1358912087648025956987396511976839974522590637207 -0.020414659252440150311036504149342363234609365463257 0.29043235704861475321436614649428520351648330688477 0.10492401421227830204951914083721931092441082000732 -0.30639715022537594713014641456538811326026916503906 -0.2968478749993817555896669091453077271580696105957 -0.3438076291962463559848117711226223036646842956543 -0.0039895237186269028040186412908951751887798309326172 -0.061539078085718471045062472057907143607735633850098 -0.18157918518736640423050232584500918164849281311035 0.37010388333506794023008978911093436181545257568359 0.20499001324628360332091858708736253902316093444824 
-0.14668232816714829591653312945709330961108207702637 1.5578678725393042547864297375781461596488952636719 0.029759872976502232955198223862680606544017791748047 -0.030031141207995742936631700104044284671545028686523 0.78415739202880596625533371479832567274570465087891 -1.2856200683803908901836621225811541080474853515625 -0.064397349042704277177762151040951721370220184326172 -0.20938347940038379291216585897927870973944664001465 -0.073304086080983141271438796593429287895560264587402 0.24142200466269700398491693249525269493460655212402 0.015883482581802447347607554206661006901413202285767 -0.27400820309490964143961377885716501623392105102539 0.39029333383005465618609264311089646071195602416992 -0.30987043864180424668219870909524615854024887084961 0.80628955198198415388333160080946981906890869140625 -0.020780294922874777835408721671228704508394002914429 -0.45007203996873690332591877449885942041873931884766 -0.15537880349016758296798457195109222084283828735352 0.16831350507488110346265841599233681336045265197754 -0.083266670726565350513226348994066938757896423339844 0.29554152272882117102881238679401576519012451171875 -0.3265183428960771183646727422456024214625358581543 -0.27009709268384302083276793382538016885519027709961 -0.52731254123116400034376738403807394206523895263672 0.027519039068930096353371439477086823899298906326294 0.27623625079625513389913749051629565656185150146484 -0.055235313286665831122856928914188756607472896575928 -0.48442695114642264631044099587597884237766265869141 1.6487112048527303720391046226723119616508483886719 1.0546714467215823063384050328750163316726684570312 
-0.35041067934320874188713901276059914380311965942383 1.2660184815328208163265344410319812595844268798828 0.15832690645808306095787543199548963457345962524414 -0.096740179400183062830009816934762056916952133178711 0.4863101524638537287437145550939021632075309753418 -0.96077992158125147259539744482026435434818267822266 -0.005772961201042558533613746618584627867676317691803 -0.029666447898970160768072901191771961748600006103516 -0.043862573438771583489437233538410509936511516571045 0.15181379868768285490432390361092984676361083984375 -0.020581777456069122456128184239787515252828598022461 -0.0030161625074660489663480600341927129193209111690521 0.062898316653645147678020066450699232518672943115234 -0.030846273928516399626120758625802409369498491287231 0.64436910231856114883441932761343196034431457519531 -0.094506208740328070949665573152742581441998481750488 -0.035143490494558053682805365269814501516520977020264 -0.11521751632481183613698760836996370926499366760254 0.026124097767905401362709127965899824630469083786011 -0.037191764958859077627728595416556345298886299133301 0.1043507160476879885857570684493111912161111831665 -0.53221088531259541642981503173359669744968414306641 -0.045313614813682831505836645646922988817095756530762 -0.36209247794706345136006575557985343039035797119141 0.12953580287917795810237464593228651210665702819824 0.077183430399937871801974154095660196617245674133301 0.059023245405374846761503704328788444399833679199219 -0.2413095227140768517237745527381775900721549987793 1.3389585254380780288130381450173445045948028564453 0.94066540782421925737111223497777245938777923583984 
-0.32597996444540566773895307051134295761585235595703 0.47443209714680512067985773683176375925540924072266 0.053333935865372279760965312789267045445740222930908 4.5488098568235830706542321966168174185440875589848e-05 0.12868254088887676189756348321679979562759399414062 0.006264029977644530386426957591083919396623969078064 0.0081752435142126069628210061068784852977842092514038 0.069574780196406449395141180502832867205142974853516 0.64404476406525779097478334733750671148300170898438 -0.20886612816869981612555307037837337702512741088867 -0.051393059776264508886622905947660910896956920623779 0.14114633359140207891080365243396954610943794250488 -0.36554650191456194985306638045585714280605316162109 -0.20830528975364590027474775979499099776148796081543 0.074556302391330986356621224331320263445377349853516 -0.066571641675655532366384647957602282986044883728027 0.27160727381769572685854541305161546915769577026367 -0.22934367544014835904597759963507996872067451477051 0.27539287736658368821451858821092173457145690917969 -0.016918545852543730168004998404285288415849208831787 -0.022798337398266171893723708308243658393621444702148 -0.27993678612990019471951086416083853691816329956055 -0.084865677254185575839606769932288443669676780700684 -0.20641297051174029020259581557183992117643356323242 -0.15602658709775032996880383961979532614350318908691 -0.21551195899580205539436406070308294147253036499023 -0.048327096135416698630127285696289618499577045440674 0.03064219765465073935795103921009285841137170791626 0.14827698441232556314517410100961569696664810180664 0.074046012403304620197452834418072598055005073547363 
-0.088649481538950802850251875497633591294288635253906 0.24220266036390677988343611559685086831450462341309 -0.031844027078253463181045646024358575232326984405518 0.014103252426632338981105085906619933666661381721497 0.016325653965104453685386332040252455044537782669067 0.1283512565322727227989929588147788308560848236084 0.07189785490468729445279194578688475303351879119873 0.098435073046466758928119133997824974358081817626953 0.88598965247209215956303296479745768010616302490234 -0.34055422413834812722654987737769261002540588378906 0.069418422302681970226245766752981580793857574462891 0.088297061787709810176671965109562734141945838928223 -0.31419789849912921342323102180671412497758865356445 -0.37327788581274701229517631873022764921188354492188 -0.063224574109076545069818564570596208795905113220215 -0.14250693383382845302875807647069450467824935913086 0.3629011209143424565581881324760615825653076171875 -0.1879100341152010744671940756234107539057731628418 0.39820797454609857535245964754722081124782562255859 0.029239034794140205536505661143564793746918439865112 -0.03240440326221664252281939866406901273876428604126 -0.098421817973727745987311266162578249350190162658691 -0.0029141805963709284908735863695028456277213990688324 -0.26099413418280426046891307123587466776371002197266 -0.32179962749278911982031559091410599648952484130859 -0.15884713729002289395175750996713759377598762512207 -0.13454279131120061574478086185990832746028900146484 0.16609791926726108490797173544706311076879501342773 -0.18045329276489258107929458674334455281496047973633 -0.40080302342271273419171961904794443398714065551758 
-0.15039737000729289095879437354597030207514762878418 0.043593725648482170575981342608429258689284324645996 -0.060231486917099945344045153206025133840739727020264 -0.056665273910280679336981535243467078544199466705322 0.076952556446836295478419742721598595380783081054688 0.0067074784132096498812103391173877753317356109619141 0.048734729865901764422897457507133367471396923065186 0.094719416823296861962511172805534442886710166931152 0.84861861252474335426398965864791534841060638427734 -0.30532380294284994226572393927199300378561019897461 0.42030979810237473204281855032604653388261795043945 -0.026321245571402019508555625293411139864474534988403 -0.06197470016601926146027068398325354792177677154541 -0.29183213098941296337329731613863259553909301757812 -0.065740241742871644015089316326339030638337135314941 -0.57590959475504932552070158635615371167659759521484 0.20287312463233087012071109711541794240474700927734 -0.16504696976769581140409570707561215385794639587402 0.057157427059678800329578507444239221513271331787109 0.074906448075031051292427264343132264912128448486328 -0.1113709504238300784795256959114340133965015411377 -0.026591778439214681928337569161158171482384204864502 0.025655221439798134297483045429544290527701377868652 -0.47321434693852559849602812391822226345539093017578 -0.010581572722590602830816663981750025413930416107178 -0.10245655734510328294106784596806392073631286621094 -0.085084106963834810199998059943027328699827194213867 0.15634102278427428056595260841277195140719413757324 0.039702024127157960198264419204861042089760303497314 -0.11163602665141410252847009587640059180557727813721 
-0.076084120863435369952476605703850509598851203918457 -0.051081739041141306645332775815404602326452732086182 -0.21712272691615347453009121636569034308195114135742 -0.11571881233320176207701734938382287509739398956299 0.25128512851400292005266123851470183581113815307617 -0.15954935163745725956729870631534140557050704956055 -0.098508074805152945341291115255444310605525970458984 0.08458306847504928893677345058677019551396369934082 0.36558166438386252572456669440725818276405334472656 -0.061176773136790589535660700448715942911803722381592 0.48066697945807429492859341735311318188905715942383 0.071301951793264858880938561469520209357142448425293 -0.056118564032495321658444709100876934826374053955078 0.031771672438392815907004518294343142770230770111084 -0.14626231844367923451422086600359762087464332580566 -0.25584659036876289395223693645675666630268096923828 -0.089189865367147985741880233945266809314489364624023 -0.17751591380118950103117470007418887689709663391113 0.0048477713925276612674797327429132565157487988471985 0.069126187590415333339421977143501862883567810058594 -0.17492561428742958717919009359320625662803649902344 0.2133472969457138046500688233209075406193733215332 -0.04334347790441588771370717836362018715590238571167 -0.27673933653171584046148723246005829423666000366211 -0.037245134909214834550983397321033407934010028839111 -0.2220827647176413510710091259170440025627613067627 0.051435317441721022102552041133094462566077709197998 -0.015394705216771054079316627394291572272777557373047 -0.25159936515659747646722621539083775132894515991211 -0.024445010871856180656447321553059737198054790496826 
0.078490734438702525199715864800964482128620147705078 -0.12276558688404171082453331109718419611454010009766 -0.4340005428910906348782816621678648516535758972168 0.031612382313554045210057807935299933888018131256104 0.86853914882514715589678644391824491322040557861328 -0.39060854779435411066046412997820880264043807983398 -0.22816828638182262700695446255849674344062805175781 0.47726005535489290920736493717413395643234252929688 0.2111824419477336955974777765732142142951488494873 0.31272802276051925307598366998718120157718658447266 -0.21571465496426278640740292757982388138771057128906 0.061136211859173367200170901014644186943769454956055 -0.10610841063322748456521082971448777243494987487793 -0.091098753626754180867663990284199826419353485107422 -0.1556631681675895717553714803216280415654182434082 0.2604193082986572815862302832101704552769660949707 -0.14929221334163958467833310805872315540909767150879 -0.30206100458153117838122625471442006528377532958984 0.11228478386223518514785979505177238024771213531494 -0.0605186551273400943906644045000575715675950050354 -0.2738595052902688675722231437248410657048225402832 0.58525333716597893740640756732318550348281860351562 -0.41527813885750652911355018659378401935100555419922 -0.23621945412032649413980323060968657955527305603027 -0.48021788743094473428385526858619414269924163818359 -0.62207817789626929094737306513707153499126434326172 -0.0075873407648936004241124742009105830220505595207214 0.027969962272534728414674631835623586084693670272827 -0.37007942149722966584945993417932186275720596313477 0.25146026275583055475948413004516623914241790771484 
0.30655592683014004640185135031060781329870223999023 -0.21428743969570651639600100679672323167324066162109 -0.47626459594485920368001075075881090015172958374023 0.37089786981813743782510073287994600832462310791016 0.38510704263594203178300290346669498831033706665039 -0.19070066526804946294149090135761070996522903442383 -0.1642363336436883092250837989922729320824146270752 0.60828671832238645489354667006409727036952972412109 -0.22493349593427847121773766048136167228221893310547 0.12368366219739046485415201459545642137527465820312 -0.14737256032416068407542297791223973035812377929688 -0.059161388334193605598176901594342780299484729766846 0.29244544304607578144583612811402417719364166259766 -0.084931749906491701973543229087226791307330131530762 -0.13521614277310586849090157102182274684309959411621 -0.015466836900461340340018345784756093053147196769714 -0.18835088569970021010746563661086838692426681518555 -0.43195706696238422850342431047465652227401733398438 0.4452960943364143164835411425883648917078971862793 0.03302980287383736057726935086975572630763053894043 -0.20360679255705935175591037022968521341681480407715 0.3418365332270614231902072788216173648834228515625 -0.38614770382640334345225596734962891787290573120117 -0.23757937492398742418409085530583979561924934387207 -0.23854862417148825493029562494484707713127136230469 -0.13752226623512656122905184474802808836102485656738 -0.039146723355691422086000130775573779828846454620361 0.046890811487460805351279446995249600149691104888916 -0.22675661479873246428873301283601904287934303283691 0.21801546183102205045400978633551858365535736083984 
0.050213400538999648781146589726631646044552326202393 -0.048262005265999739778148835966931073926389217376709 -0.61637324278323724069394984326208941638469696044922 0.22713335056075478757264818341354839503765106201172 0.071526036987936456035264143338281428441405296325684 -0.14449874712317142821937920871278038248419761657715 -0.15096179376123322612990307334257522597908973693848 0.46422942054194826777546722951228730380535125732422 -0.1373883470220803870720516215442330576479434967041 0.18541470283989605616348228522838326171040534973145 -0.16906898540712500533800266566686332225799560546875 0.59487597304092032501898756891023367643356323242188 0.07750923185161358308636891933929291553795337677002 -0.0094485751668073238856981888034169969614595174789429 -0.048409541902600272678114379232283681631088256835938 0.53730115129450295441415619279723614454269409179688 -0.21604663142086852345435943334450712427496910095215 -0.25171539851846852497985196350782644003629684448242 0.66879755970779308782425687240902334451675415039062 0.11395999598460838930780170130674378015100955963135 -0.14199824438049638009040620545420097187161445617676 0.025237008968242390788416784630499023478478193283081 0.38753992887305666048547436730586923658847808837891 -0.21866782890601757505244506774033652618527412414551 -0.086056018734321518270924400439980672672390937805176 0.10689578396231425028162220769445411860942840576172 -0.39433576611524218114013251579308416694402694702148 -0.069086908443001637802893810658133588731288909912109 -0.23120520683977044407164669337362283840775489807129 0.25970540239903677770527679058432113379240036010742 
0.015810330136436220871409830124321160838007926940918 -0.065840047594463366187333974721695994958281517028809 -0.23837502306259669704324721806187881156802177429199 -0.01485226741820199446164618706234250566922128200531 0.18368013143917610863198319748335052281618118286133 -0.073710313335906690879184566256299149245023727416992 -0.08353163553756484671630744287540437653660774230957 0.17771640069556202123912669321725843474268913269043 0.070046059828124659918380245926528004929423332214355 0.029966236575155888455235242417984409257769584655762 -0.094868916439625500247601053160906303673982620239258 0.22191322376333416643845453108951915055513381958008 -0.025671748904750543024411157944086880888789892196655 0.047464562191312079098004517163644777610898017883301 -0.053378478103455868908344683632094529457390308380127 0.16407913946103944158316778612061170861124992370605 -0.00058551319330085412669800737361924802826251834630966 -0.12470387843401538330301292489821207709610462188721 0.12310200222031170147474199438875075429677963256836 0.092050876307993592662093362832820275798439979553223 -0.24090695246829865738824594245670596137642860412598 0.19392811734967826953202063577919034287333488464355 0.14168918895343007857690054152044467628002166748047 -0.12438480353283579149525905904738465324044227600098 0.013227747103020350699642548875090142246335744857788 0.015388198462439226302245209865304786944761872291565 -0.205415844182741835766137228347361087799072265625 0.070584404509533738014681603090139105916023254394531 -0.13951140814787862942658591691724723204970359802246 0.1445180956902259450380654470791341736912727355957 
-0.0072399931626272893622764392773660802049562335014343 -0.03473158858077612237691411678497388493269681930542 -0.037237343970327012321330784061501617543399333953857 -0.14636594485203416327045999878464499488472938537598 0.31024111641545437656475314724957570433616638183594 -0.060372857026430873372824237321765394881367683410645 -0.045275841230888555499767278433864703401923179626465 0.032151483155328522411942060443834634497761726379395 0.26588566152411857723691923638398293405771255493164 0.0073993507664325977937758160862813383573666214942932 -0.037085777065015639031297922656449372880160808563232 0.035036920731550298679923827194215846247971057891846 -0.093854297655827256807725689213839359581470489501953 -0.043413306079308350282630613037326838821172714233398 0.0036207185951934177554900617934663387131877243518829 0.031050707853375769662562788653303869068622589111328 0.046858371036672508136433634717832319438457489013672 -0.061569965603586102043109917758556548506021499633789 -0.019350286918242830258574116442105150781571865081787 -0.01689477266749949205260072915280034067109227180481 -0.10677960140527720245273712862399406731128692626953 0.47858035166848206243273011750716250389814376831055 -0.017781501199719947081678839140295167453587055206299 -0.067093075526599224578383484640653477981686592102051 -0.22581039527634658159449543290975270792841911315918 -0.20823847419862462349016141160973347723484039306641 0.033039521975969057820954333237750688567757606506348 -0.0060074812994775515437306800947681040270254015922546 -0.13453486986227330968191040483361575752496719360352 -9.7647127377490064746102041426389916978223482146859e-06 
-0.00073682533226267752941157640478309076570440083742142 -0.016351084673953065334872647440533910412341356277466 -0.032543254169801451303190020780675695277750492095947 0.015727552832133031429640013243442808743566274642944 -0.0010944450800380747888113086574435328657273203134537 0.033658799406707649859438191697336151264607906341553 -0.011706367715223106942823427800703939283266663551331 -0.022572292656222098239382489737181458622217178344727 0.060274558974726402671429070778685854747891426086426 0.0064442129423136805879690491849487443687394261360168 0.022787945497715161174978604208263277541846036911011 0.012658233224425101404175819652664358727633953094482 -0.046988492328339917514234969075914705172181129455566 -0.043721347950482332411770158842045930214226245880127 0.034889951934245766462794335893704555928707122802734 -0.042311931857122085653966081508770002983510494232178 -0.033100250002968290008453777772956527769565582275391 -0.018441151038464827921492528162161761429160833358765 -0.046279994466753467119435327958854031749069690704346 -0.036443840803289898055972173551708692684769630432129 -0.057032048462741478933590855149304843507707118988037 0.061494648172634204519315659354106173850595951080322 -0.00051789679908599518462497535153943317709490656852722 0.062121506261634214240974216636459459550678730010986 -0.081894329333441512330793443652510177344083786010742 -0.024440292117271628785646342407744668889790773391724 0.018339639188349327048044301591289695352315902709961 0.054426631667202803044336434368233312852680683135986 0.017847540159181565777579692166909808292984962463379 0.0043095310739288891777043488673371030017733573913574 
-0.03094230688069740317636124871114589041098952293396 0.0049470255644038377620952395830045134061947464942932 0.030329904801546962028746534656420408282428979873657 -0.047041619492035842420296631871678982861340045928955 0.031355882204492500908710184148731059394776821136475 -0.02673272101860076771506768977815227117389440536499 0.012325884986867319259573605449986644089221954345703 -0.029122314429900122284555763485514034982770681381226 0.022062845419049199185979048820627212990075349807739 -0.015084919636284813485027633817026071483269333839417 0.026833158930227838517845739829681406263262033462524 -0.046739035046528529249165728742809733375906944274902 -0.014263171800839139630179275286536721978336572647095 0.029977218077747166263824496468259894754737615585327 -0.03398213237950271220499942614878818858414888381958 0.0010029367018174553411596905405644974962342530488968 -0.037058285196014978390977034905517939478158950805664 0.00085341630273926569281300880120966212416533380746841 0.043937838919563119988165311724515049718320369720459 -0.00095368263043742326160595590422985878831241279840469 0.035817642704748298143613283173181116580963134765625 0.03039248688768925177328128484077751636505126953125 -0.0020179035814422417206837057079837904893793165683746 -0.038412375811442890649605175212855101563036441802979 -0.037665462152188529387775162149409879930317401885986 0.030394369374723676641147918076057976577430963516235 -0.04303491369445937991811135248099162708967924118042 0.018073678918321602060448327620179043151438236236572 -0.037056869523844251923527792769164079800248146057129 -0.038597020583569396912082538619870319962501525878906 
0.020961283292198110150827972120168851688504219055176 0.0090002974781885538430037385637660918291658163070679 -0.032031179972639343966900327131952508352696895599365 -0.0030001000682969426562596293450724260765127837657928 -0.045001033028154696635780851465824525803327560424805 0.0069987541770422283596286838758260273607447743415833 0.013999865029171696534371349684988672379404306411743 -0.011940121301835920561429382757978601148352026939392 0.049169229698163133268629110261827008798718452453613 -0.014999507398255142870402423227460531052201986312866 0.0070014051748705377967163521191196196014061570167542 -0.040998538128516850975735508200159529224038124084473 -0.037000067258282184901041489410999929532408714294434 -0.036005005331730607909257457777130184695124626159668 0.030998692882277932569845546595388441346585750579834 -0.024999686390812899533520052841595315840095281600952 -0.045001703217585488359109291423010290600359439849854 -0.035998244045064714535797634198388550430536270141602 0.024007209792848479418259088902232178952544927597046 0.013001618333032011198824307030008640140295028686523 0.030000143136679910393915804434072924777865409851074 0.028001712596974571989338897992638521827757358551025 0.020003735832013379986049628200817096512764692306519 -0.002223552157865030676903161932500552211422473192215 -0.018012929070672156067756120023659605067223310470581 0.0039993082924415675194484975918385316617786884307861 -0.016032893090132543240100559955862991046160459518433 -0.0099977657688431649518623345329615403898060321807861 -0.0290025851890280961242751800455152988433837890625 0.044997368950151342414933708369062514975666999816895 
